digraph Tree {
node [shape=box, style="filled", color="black", fontname="helvetica"] ;
edge [fontname="helvetica"] ;
0 [label="Na_to_K <= 107.5\nentropy = 1.923\nsamples = 160\nvalue = [17, 13, 11, 43, 76]", fillcolor="#f8c7ed"] ;
1 [label="BP <= 0.5\nentropy = 1.762\nsamples = 84\nvalue = [17, 13, 11, 43, 0]", fillcolor="#b3b2f5"] ;
0 -> 1 [labeldistance=2.5, labelangle=45, headlabel="True"] ;
2 [label="Age <= 33.5\nentropy = 0.987\nsamples = 30\nvalue = [17, 13, 0, 0, 0]", fillcolor="#f9e1d0"] ;
1 -> 2 ;
3 [label="entropy = 0.0\nsamples = 17\nvalue = [17, 0, 0, 0, 0]", fillcolor="#e58139"] ;
2 -> 3 ;
4 [label="entropy = 0.0\nsamples = 13\nvalue = [0, 13, 0, 0, 0]", fillcolor="#7be539"] ;
2 -> 4 ;
5 [label="BP <= 1.5\nentropy = 0.729\nsamples = 54\nvalue = [0, 0, 11, 43, 0]", fillcolor="#6e6cec"] ;
1 -> 5 ;
6 [label="Cholesterol <= 0.5\nentropy = 0.999\nsamples = 23\nvalue = [0, 0, 11, 12, 0]", fillcolor="#efeffd"] ;
5 -> 6 ;
7 [label="entropy = 0.0\nsamples = 11\nvalue = [0, 0, 11, 0, 0]", fillcolor="#39e5c5"] ;
6 -> 7 ;
8 [label="entropy = 0.0\nsamples = 12\nvalue = [0, 0, 0, 12, 0]", fillcolor="#3c39e5"] ;
6 -> 8 ;
9 [label="entropy = 0.0\nsamples = 31\nvalue = [0, 0, 0, 31, 0]", fillcolor="#3c39e5"] ;
5 -> 9 ;
10 [label="entropy = 0.0\nsamples = 76\nvalue = [0, 0, 0, 0, 76]", fillcolor="#e539c0"] ;
0 -> 10 [labeldistance=2.5, labelangle=-45, headlabel="False"] ;
}